{"weights":[[0.36353970683639114,-0.3984224876713156,-0.08859740011653991,0.9628866484155864,0.2554294980503675,-0.1603097587198777,-0.2884625485892536,0.3619845496864089,-0.002609866686416276,-0.14098351329133318,-0.3926896537977712,-0.17660030204005925,-0.2952788937029843,0.27345597840626806,0.7630842204856664,0.2403100804071993,-0.08217520175445267,0.029740209576741033,-0.06558500556988517],[0.037753979963972964,-0.40091514608466616,0.38504331902071925,0.09319933393095903,-0.39648123098885424,-0.014062857605118856,0.6112068799925755,0.3861861203649528,0.15341262381134604,-0.07834036884933109,-0.04775394390426785,-0.3354482124020728,-0.10397279414218347,-0.33127768040709266,-0.05446706797929668,0.22766718927387247,-0.11109535977919979,0.3830263646858671,-0.21896431608739567],[-0.6058863003464214,0.2762420005172287,0.396008765324286,-0.5264469312750649,0.1988929034276913,0.06240241333266883,-0.14886985805981814,0.6331999885087378,-0.009007076070379863,-0.49661091077630526,0.8916695187938753,0.19043644534708984,0.40662254719349045,-0.03413298450756945,0.31014895232453227,-0.13718131009588685,0.4667828267767859,0.1679440454878227,-0.5302195619732402],[-0.4613038583054413,-0.2587804192436891,-0.3988171905182056,0.5416217552779538,-0.22851210167610844,0.43991464233068056,0.2907284741983802,0.1068149056649887,0.21774596896832563,0.014231588921156411,0.8494439393571732,-0.05774644400776074,0.15618369854095104,0.24641341326812227,-0.2859976998956209,-0.4981417030342985,-0.2402412784974702,-0.10929087003376901,-0.21786386536175642],[-0.16339967679826897,0.21965092031651828,0.4218871814627571,0.9062772752078897,-0.023338114936338795,0.31224592648766625,-0.6528581319473369,-0.3754805674761921,0.23153740097054462,0.5114259531950005,-0.43731274068139936,-0.38649542018091887,0.3591551328371312,-0.4792771148716615,0.747931324935977,-0.029394635136822674,-0.3069768239885233,0.3233536788925468,0.09341290517790646],[0.04344616956718961,-0.5389528240334457,-0.3015780265443277,-1.0539835990077506,-0.40347329127146536,0.5309630592760649,-0.04807913870529803,0.2928197325080782,0.33377842590903595,0.4318790405051952,0.40542785183987695,-0.4494825850325119,0.41275557330937607,0.000292794091090125,-0.5885903765757313,-0.08897495489368695,-0.24862467230257768,0.40034748918052504,-0.27951291470204437],[0.18738909717170568,-0.29128174843273413,0.23697856618376084,-0.1013725524835715,-0.27757600308813457,-0.23415404078944355,0.5383951266281458,-0.5384093620801518,0.22516759942796707,-0.1634370109082437,0.08809506824246338,-0.2772192269073198,-0.12050142937885097,0.32803030772557457,0.3874307764423513,-0.021914144799495154,-0.15752264212023112,0.4171308565271015,0.29332379314088014],[0.009984368354758423,0.29522172201699004,-0.1843996171171155,-0.13988962612433742,-0.03548690787096906,-0.320263640622922,0.39286901382356065,0.25319804464367907,-0.4383358240636097,-0.24600376455581388,0.15442208986095035,0.39103045681292525,0.29577538909412193,0.37621847604764863,-0.4455211256779747,-0.5898520239049612,0.21060110382021344,0.4536267531498536,0.34973116983899094],[-0.09311802970956409,-0.1971402845541187,0.3144690487748037,-0.35341063665023176,-0.016006354954854037,0.5699019735188916,-0.055107413619167246,0.5132557857112452,0.0645727745240807,-0.004932541408434519,-0.23607291270774267,0.08708237693749353,-0.10581631669056854,-0.5951699958573635,0.08817909838768405,-0.2972864849621485,0.008889912254463884,0.3369826110407567,0.10995542709774353],[-0.6557472159281066,0.3940426080174232,0.19908304580082625,0.7784832330557191,0.3410365251357621,0.5008328991403259,0.11826152290118941,-0.3508663104690455,-0.19710002132373547,-0.28934096292069433,0.4913640295824909,0.6645762188892246,0.15417534111054287,0.3219571308517171,-0.5387064421320923,0.016022881965911458,-0.3333602165239557,0.5336725496175858,0.29793349952484444],[-0.4609591188358504,0.14116753746925814,-0.4072970128688482,-0.5820544877577002,-0.4841934211606509,-0.2258957770801124,0.04344634154653989,-0.3309213970575672,-0.2996304470259321,-0.5925753069142928,0.4641334548395819,0.005516590774912033,0.49416092506361275,0.135666144611952,-0.17567184827664578,-0.43978417880835474,-0.17631829706882038,-0.6158014856783273,-0.29116808595417515],[-0.2656121171422883,-0.07008984948892608,0.2424829417333796,-0.9579375917815388,-0.25462520628858565,-0.46597934192543244,-0.001230051762325495,-0.3750191197789018,0.17005786231621703,0.19435264758410897,-0.32070910939810804,-0.3451740350113588,0.1252109724748099,-0.2844924787637468,0.015454273160028256,-0.5327086684606442,-0.31101587407765036,0.24572696926822524,0.39070686179148945],[-0.47272482910322466,0.07693585495406928,0.5384728936849308,-0.13410907067024086,-0.4376081869342844,0.33963103649690696,0.5275398118285256,-0.36987036652610306,0.08676635437910607,-0.46930333847441064,0.15136728209976913,0.00794052146963235,-0.47175778907185006,0.12513594663863298,0.14767135364230843,-0.2760906017435971,-0.346347993744571,0.33333622942418756,0.2011030690286875],[-0.167895979733609,-0.21322152606426986,-0.499418465401266,0.36085576497617344,0.14918085975279663,-0.15761006495065447,0.5321383845325943,0.19968230963198597,-0.39634458113351956,0.5194969478070045,0.2841320895901902,0.3791241239689406,-0.2866962301799215,-0.015392387341372361,-0.41755309191314355,0.309378982827233,0.4668662251424646,-0.330816475669743,0.16155603084275824],[0.17542464584011427,0.28985970102013636,0.8022312550182262,0.17124478015574973,0.11078888742387524,-0.003707472849129613,0.3306524931530902,0.4676500444511542,0.23543361884872152,0.147548892941826,0.0040850862272863026,0.1805589440998072,0.010128902750645447,0.1397481825065174,0.17598168803266995,0.29292147650318434,0.1151266582028602,-0.04107079558487763,-0.07716321154380562],[-0.4305870263721664,0.34235921770698996,-0.021300361730946127,-0.3546860254993983,-0.24259212076053863,-0.3805885612268177,-0.40205203095421194,-0.34086791955901463,0.21357007288175525,0.3835373119919393,0.15326974020550355,-0.568784030706526,-0.16204490978329134,0.3709310707299653,-0.5980726637066015,-0.5129895198794403,0.25760753737139525,0.014831306762415602,-0.11163716695082346],[-0.3753936578397855,-0.2995312253806909,0.5598321054848465,-0.18932942257600544,-0.302611606594437,0.08808560806817856,-0.08060628898362451,-0.3056614309187643,0.481008730863273,0.38799073528859396,0.5210744047289562,-0.2645213597651268,0.46008972279204374,-0.2507582684846631,0.16598863867664743,0.4659292126994399,0.03140583579417589,-0.6574475331419883,0.32861954851976277],[-0.1728038673998407,0.2695664969126813,0.23598959380510615,-0.9617824245254617,0.33474854120742437,-0.30515100392911954,-0.24003750831437085,-0.5395908938057223,-0.40052787532260115,0.14100060340036613,-0.23235866278662431,0.6968996117542985,0.3850913038073186,0.21503779361333944,0.007908743026141425,-0.1020255738657021,-0.3594558960806438,-0.49550953646755336,0.0696802990007864],[-0.4101356064287809,0.04721823805046998,-0.39540702391829224,0.36072134706875336,0.022157020335652148,-0.36034838894216425,0.20973031746333434,0.5759323486561907,-0.43206844957733304,0.3531187431422317,0.05091607323102988,0.06942932031981369,0.2737832333130129,-0.40395290883448737,0.007395237941880319,-0.3312973040126953,0.20148378795423869,0.03585035897136488,-0.4084061487870681],[0.4763627207241451,0.5240314605716546,-0.3670088537071155,-0.20903832989650556,-0.14803367847754237,-0.38572579488195924,0.12775752674547372,0.4968048552516252,0.3490732688381978,0.047313628277996705,-0.46505637680718637,0.5425285854538759,-0.3522531753768632,-0.021949530000826042,-0.7052886050778099,0.3459199726944504,-0.3800310670763665,0.15608349281138495,0.34300679872294065],[0.3886041103165807,-0.01708875364192555,-0.5228471659321567,1.1299221473826186,-0.2888636565096043,-0.2173383942318212,-0.6296786045005235,0.21327184040982283,0.2725915141580134,0.5473425904433594,-0.5552216935924116,-0.4276407053885012,0.43155083983485054,0.16470169874333837,0.6253407711612543,-0.36028069391087225,-0.3012762600162468,0.05195426101725573,-0.3708942282763625],[-0.3143895674663163,0.40285711674357383,-0.12147210014358037,-0.319588861128713,0.4234547797469247,-0.05176907437401659,-0.32272910482106254,-0.18446850987123042,-0.18067690238177167,0.17294487653958168,0.6882283796915901,0.8865493549461818,-0.20624543746430762,-0.41169299246986873,0.2714621390340864,0.11518733211681922,0.2549269253697839,-0.509001205377604,-0.1852777352592648],[-0.3539938409187735,0.23708558692407072,-0.07354268144192075,-0.30225002785454647,0.034630878443865115,0.38025330771269594,0.3705454125556964,0.20847195245291006,-0.0012197858132930188,-0.6902045856081337,0.5727355893567737,0.4597747506847931,0.36268462205478424,-0.02438143967173738,0.3807088251028368,0.40336623482012124,-0.3846286003908254,-0.5843066780150304,0.10762885042610468],[0.20678348432118757,-0.14316608923108437,-0.383771692942578,-0.9786392997765446,0.4414209657523037,0.5016328676805787,-0.2756737911991127,0.580088646793786,-0.05807259345822529,-0.26035827309482196,-0.3720893367386562,-0.20265911415442875,-0.5197971683371485,0.421431652174095,0.41427353202658396,0.5770967009902608,0.3208303734227151,-0.49010229660063537,0.03623301665255475],[0.17755117059937073,0.011545124306797038,-0.44281123166216735,-0.08032016425604338,0.2261146439559272,-0.2961599271722992,-0.5013111301428193,-0.23859627821364587,0.49001760131273286,0.3738391873979333,0.15164542246598556,-0.6447066260310748,-0.3707364945632181,-0.20524653387146416,0.6028328303164779,0.27335000900754747,-0.2647234877127348,-0.3416737381486699,0.26490449564956725]],"b":[0.2723349927413336,-0.4187129138177082,-0.19038502388233938,-0.19708774934511983,-0.36266110338004115,-0.0005801485914755137,-0.2802867342410758,0.0890167846052699,0.2075902375580129,0.5545947523148556,-0.36398453741874054,-0.026477261169428674,-0.005277252748300468,-0.4007339289003749,-0.24067587420304057,-0.1842649486487201,-0.40430980130652855,0.2908358689871389,0.4561988658761433],"biasHidden":[-0.6982996879467114,0.7493857396906655],"v":[[0.3635075642020341,-0.8605924424975709],[-0.22612949524174042,-0.019501812279065504],[-0.6518877145901031,0.7799517821362447],[1.6508673947344532,-1.5006574303862295],[-0.06461076660696323,0.13925940467034756],[-0.6870238538654442,0.34425517652075105],[-0.9192440994758326,0.5418895299195498],[-0.4710717250807024,0.8815389487069338],[-0.0818652373731322,-0.22583301062802716],[0.4175256892751437,-0.7810132844087018],[-1.1417776679315075,1.1255400085120233],[-1.0699502039823185,0.8631387269153957],[-0.30839745115791517,0.24094068232032667],[0.21841017076855018,-0.16337108961862468],[0.9258003511761902,-0.8896822272521593],[0.32194883872122565,-0.4045132301738571],[-0.04500993516999294,-0.12668965241111593],[0.5403858964502629,-0.5626584161899402],[0.4906112184649244,0.2552337896580627]]}