{"weights":[[-0.19108359725916335,0.45328661335701836,-0.10934444885903764,-0.3849763749124472,-0.45496324492159196,-0.5360558240164506,-0.7485853277876292,0.18843198652734738,-0.14517551853476598,-0.13635771127118368,0.32444259523198044,-0.3726270417220843,-1.169373462831469,-0.47373625495287736,-0.41994413599971425,0.050027021425475444,0.397136833311837,0.985827542355931,-0.6012492922513732],[0.63127157277602,-0.023888746372265797,-0.03202238249412066,-0.6944583248629881,-0.04163187589472507,-0.19161368772502027,-0.3365541004525325,0.4145570243020382,-0.3983697046687691,0.3851196102067883,-0.1988704841646087,0.3363407215957349,-0.4193902709344144,-0.18249840749584176,-0.28965766025764084,-0.29188238508486075,-0.6252987050557898,0.5245912463962911,-0.5089621389107114],[0.08567622591500255,-0.6409170064347278,0.2219017280426423,0.7900726388413326,-0.23008657140936137,-1.0467298062343484,-0.0035575950933770177,-0.7286339782590667,-0.8115402440674454,-0.07751861584228713,0.28540886634962,-0.0028440775039337528,0.8959309049478346,-0.6208445077817241,-0.21772717732828517,-0.1817222744724935,-0.49612723657673785,-0.23366444255781707,0.22415317449675773],[0.401087578505743,-0.5194048263075034,-0.1285524512560236,-0.821533409563356,-0.2761216074087908,0.19411301025538732,0.15856546438578872,0.4190592686289937,0.37066536503653424,-1.2095911567623954,-0.8275936792379868,1.259121087952856,-0.05570897448408606,0.6303126973140699,1.1167655803998906,-0.5681084222230097,-0.3137162156530201,0.689761514972025,0.2455913326111641],[-0.4465980005472537,0.19538413824287282,-0.4835859229350854,-0.7698906738482116,0.10321199293516244,0.2589944851627377,-0.7298855211738003,0.675767717595247,0.01451037879922424,-0.40294746530978187,-0.057524253180215056,-0.43120231594886793,-0.09622007632100503,-0.6892945387890622,0.16468020118179866,0.1487941634516003,-0.546092202321573,1.0914422944156776,-0.8819327410585329],[0.36355638997843903,-0.39898504771010823,0.1123981055627122,-0.6440173122069683,-0.13383213984710893,0.0383076411998572,-0.5591404498520499,0.3651675400223642,-0.20490996863511854,0.39167467134394096,-0.5095060274554504,-0.6705415543775605,1.105698221738297,0.20405420994980175,-0.09924352909893913,-0.059518654749480475,-0.7056023847243372,-0.7212834580873316,0.8235408484183007],[0.3975526073664049,1.0742380382598442,-0.02253828059027821,-0.08098347349408788,0.29246157709574344,-0.11575246028798294,0.35728496827649164,-0.11781442831751518,-0.8542411151757326,-0.33290824135965547,0.03839527966192945,-0.7907176374691341,-0.5966485257479055,-0.5990027685510609,0.11984186647237688,0.16627623395179786,-0.9774167978124765,0.704949472698395,-0.17962312385074083],[0.000037288681799957596,0.03416740222649823,-0.12701553953908157,-0.2920838416525625,0.4230777706539673,-0.2121069883788246,-0.441938105144931,0.2131105671897095,-0.46610289709086217,-0.9459061478610902,-0.7880990600406641,-0.14577533423138092,-0.24556205968854003,0.8217067130512067,-0.3232047502347444,-0.5026394933372709,-0.6994804730419538,-0.35080858580912744,0.06713380222200015],[0.05009276626641502,-0.94369149040244,0.44687489568529254,-0.5204346703399201,0.08635724521924999,0.5664395340441042,0.43006271297464954,-0.24950670669507413,-0.8211094316941142,-0.2094861883169125,0.4281157348254729,0.06419689256564068,0.16987051888281032,-0.22442096567690947,0.40586157451865135,-0.4172377478855721,0.17309066014895652,0.2532718078317251,-0.15802452515571827],[0.33975390754119533,-0.40614239641033867,-0.23305245114087586,1.0670747490421963,0.31340912614720967,0.0634901715945744,-0.26203470846997046,0.17685414963630441,0.4072661314249978,-0.7494872174248361,0.45889193440514603,-0.5672463832986383,-0.1906645080205708,-0.3646939286910796,0.29843718964569743,-0.035284745666275354,0.34732845960558867,-1.0294433843101716,0.184496556017843],[0.18311432759604085,-0.5694032542451926,0.09428967374414594,0.6798510130915909,0.1542767781143489,-1.013031866153684,0.26829496064787356,-0.6711257325898823,0.3303026455789503,0.6883167061123481,-0.09547626578690147,-0.15461623594797988,-0.27363849836176424,-0.14153703381316465,0.7580140329695809,-0.21340390444059165,-0.79821860430922,0.18638080007777244,-0.21334860624702442],[-0.6486103948057244,0.4492275210268364,-0.10525403741654459,-0.32430964985889443,-0.5234764099121797,0.08349689150694659,0.47156989160083557,0.5393502187503818,-0.1878021987021691,0.6988192284675725,0.007432366017723856,1.103750498309163,0.2873527835789276,0.39973731620765,-1.0130248024413466,0.11950877718024597,-0.0023900122562677865,0.573790022038411,0.5449188852918732],[-0.19923103267968562,-0.6665669392233937,0.47759927397869545,-0.4186922373336248,0.01270062043253174,-0.17795204546640117,0.7641626158683378,-0.21611166973490048,0.4537576169275127,-0.8806363187643753,0.511433976890326,-0.8392142639438781,-0.3402746911349308,-0.4283023208636781,0.07717167501934763,0.3881726318466834,-0.39932151621931633,0.15133593377972634,-0.10151845744777001],[-0.018796585919252224,0.58596868147671,0.12247031096294449,0.7283772650178311,0.2800912156010706,0.1664024964130794,0.8438795424266666,0.8148271690115167,0.1544726421933945,0.39463844844496676,0.5812006387047977,0.02093742482427033,-0.39805942117534066,0.19860802510182732,0.35151873176144477,0.04215821167797645,-0.1833440867658258,-0.10099383769655235,-0.25228895483105546],[0.9351759160800678,-0.21541090117518374,0.15275472562997294,-0.5178143435535807,0.09129142895315805,1.0419356350419469,0.2172856538274069,-0.4467397067700747,0.18564996884582893,-0.6392250575179907,-0.05302479938098253,-0.038897179399707285,0.8519012217055484,-0.37963288978641735,0.8482189368807646,-0.6431554172731286,-0.4050271456051021,0.35638621748807964,-0.1536437747635864],[-0.6694412383088074,0.4616720078973696,-0.4988071742568711,-0.7825455035789057,-0.11266579081761709,0.03966493744196928,-0.18590539878569257,0.30212821710006643,-0.06548380952823604,-0.460413906427638,0.014614537966921762,-0.5657419852731772,0.24412790925273822,0.6668820450632521,0.42799136693617545,0.2127673328686689,0.2517720690548735,-0.27492171869111803,0.2872433903669039],[0.3961979873054206,-0.7685227051123897,0.07613677472425164,-0.6935673701881939,-0.4476060537768452,-0.04684584317739157,0.6438116204900092,-0.11422586972879686,0.31512914650658697,0.9710403172695191,-0.2461093939988375,-0.574012249641444,0.0555933763386615,-0.4921745125635301,-0.47512161840174205,-0.3798492293906889,-0.36544210571278546,0.09260803116171062,0.023294296413276662],[0.029397900698664266,0.6180870130267708,-0.5234276078243004,0.37807431713127015,0.02806818816876181,0.6021493535600773,0.954359215273504,0.828168380105748,0.3737020267575052,0.20148089005146913,0.1429749316315557,-0.6269927498276774,0.742125620325295,0.1114010437396701,0.40268303682887063,-0.31393276053532104,0.059466391197950455,-0.9284705882585561,0.5189758606680338],[0.6432753547197531,0.9339258375283883,0.44247188597664894,0.2955003512633575,0.1803562477192022,0.46859951091713203,0.6466363161233878,0.0763028621888493,0.17836967792367261,-0.5212629583733193,0.058801200074492334,0.672241460291276,-0.42901757784390115,-0.23521615240643284,0.5148185528263102,-0.5408472636717168,0.12156049912535932,0.14255778775686337,-0.4150328920862864],[-0.4182127729165823,0.2244095600707603,-0.251665693387992,0.4931511771555309,0.781541918883554,0.6193355551536415,-0.3411539915513571,0.36410753671297236,-0.3833227748128062,0.02405724466933082,-0.4143039934494525,-0.04708637046917177,-0.8469315168690923,0.6501857890293038,0.3763107257309768,0.471416722434856,-0.5308870841355119,-0.5171251669991129,-0.7579498978727222],[0.09496513158878118,-0.050708265968954606,0.4006792668086278,-0.6913912527043884,0.162929021610301,-0.1447542051209205,-0.7916080678821914,0.6908660240757831,-0.3677168777761578,0.09895273071318321,0.3029487659618743,-0.663560846845647,-1.0745157692747676,-0.8014364447573666,0.25108679358783687,-0.045904440591178035,0.07316897950896104,0.9579859642092673,-0.7663817051152473],[-0.35295224617633963,-0.10005103420699539,-0.6831477197818431,1.1877743842361197,0.22479998990523048,-0.147168369413161,0.4170956370755104,0.36092375938051835,-0.4793033112966423,0.4485829206969213,0.3741126699981267,0.041702814526444365,-0.10827041576006514,-0.14003520674534084,-0.15134017378937542,-0.45018070311312086,-0.350045703197839,-1.1403950381331065,0.1763877342920657],[0.3281994452587869,-0.6948562617529592,0.18345613186117604,-0.5839829391733247,0.049018097979894565,-0.624264011250004,-0.3541431398602591,-0.5808405664809839,-0.8179013667506813,0.9504570417317926,0.43714467390184103,0.37564024626304104,0.2276044975120888,-0.5083920944726658,-0.41232351280556756,-0.26919976942736323,0.04005265923975429,0.522690024528346,-0.2292182749149078],[0.06642692984552316,0.39409860718013123,-0.14589521369782815,0.4150693849260242,-0.3559088276810646,0.6709356525766387,0.45343448031609784,0.606282419124939,-0.1871277386392031,0.42697386596606235,0.39111709089406593,0.6874787999758701,0.5724471704003427,-0.4102344179336391,0.26049112943231284,0.6306501441124475,-0.10202124403831403,-0.6488066391981134,0.9038963648962868],[-0.02057462971396119,0.11231742167212554,0.19157922023261553,-0.4604032315684714,-0.48336538467224666,-0.10876311103217531,-0.5398399681839611,0.04732786475655738,-0.3250489302450935,-0.08397015811663903,0.11250073690166804,0.20304510589702882,-0.5523941244405008,-0.816469752665553,-0.07435022000860403,0.0880151116767898,-0.07604460647521846,0.69663243258925,-0.16087793245955231]],"b":[0.3512993797679793,-0.1562790680327928,0.3135663710226906,-0.3229331174225627,-0.3839562085252719,0.41530070951642495,-0.37948609458241545,-0.406188258645358,0.18777748514520476,0.100217961563565,0.27689480005808886,0.25204272556676033,0.30932280853545846,-0.4011156451990461,-0.4689737774633249,0.4785059564137204,-0.4306025596844074,-0.22902158699076436,0.047113400224400026],"biasHidden":[-0.4305250828179523,0.42158144254432295],"v":[[-0.8308726937250881,1.2849369389260985],[1.6633496645199704,-1.7189143340681046],[-0.6667637861791589,0.47187093682745423],[-1.5063060682784464,1.5349737594065598],[-0.6239969485117243,0.4302157528415296],[1.225049327821446,-1.4142150466133254],[-1.002893448237462,1.1741589408653563],[1.7481820833710824,-1.361636883875296],[1.0751116296486056,-1.1905791426873553],[-1.2794855500916058,1.2106996168429602],[0.892479330643322,-0.5856089362032447],[-1.2053921073034923,1.1821665652660045],[-1.3509059111502024,1.4773978294976993],[-0.8757044756908431,1.1543576520760794],[-1.4372886025548877,1.345733361940324],[0.9443666484960757,-0.5964409024433035],[1.4222087893943631,-1.4740475556992256],[1.6881501714502969,-1.6950835078713944],[-1.0849718619470494,0.8083305171507066]]}