{"weights":[[-0.4338455807796952,0.3614268935685519,-0.31835497541587576,-0.2523201296172406,-0.5042812829489013,-0.47275488244678243,0.484926744951323,-0.31536733525491845,0.5648830983728388,0.29286295275571395,0.07865570372242114,0.5019105915497045,0.1713172738191218,0.6559931385057649,-0.18967863562654041,0.34839944440158743,0.2501711199348209,0.048355003612540276,0.1529748944796163],[-0.09037604872971748,-0.4179105834334877,-0.23064297499204034,-0.10695190712222441,-0.3444979115312699,-0.6539338109528732,-0.37378054723100973,-0.23866699845496026,-0.8761634732362074,-0.4179013136368044,-0.24311728835098195,-0.4429227594495583,-0.3641342282533664,-0.28814458134976223,-0.03377777129637385,0.2788332575765514,-0.29263741517460473,-0.5673267228227723,-0.16880381681001053],[0.09376769938677428,0.2166269050720897,0.47684818824987096,-0.14438255447411955,0.30143895739340837,0.033731226517638456,0.27887133851450263,0.3712258660693013,-0.9389119811968258,0.6800533615967326,-0.5489694440099608,0.029816309001076007,-0.11612303008036073,0.06508619859382346,0.16524842975054105,-0.31587520284268544,0.2902484199258213,0.311219490015528,0.16123676934615486],[-0.5989984977414448,-0.3515734299379561,0.45109109210237985,0.3406731748563591,-0.3369147999835446,0.08097168725730094,-0.2878705496370084,0.3015608175965684,0.29510557836730417,-0.009702815474439588,-0.6978722429167561,0.29868389788391914,-0.3170662168828703,-0.4106520301094185,0.18544630295319092,0.009716639605751752,0.05801294500184735,0.5161445060996611,-0.20360329662763302],[-0.6581038166253285,-0.055540865885903595,-0.2564862268546403,0.06892467398465688,-0.40599229391604247,0.1961275425377888,-0.3716926971976603,-0.08478221104303095,0.15503972826447626,0.7773629529548871,0.25809601379784775,-0.5680369971317537,0.06323198604035211,0.7260530539886856,0.09602400097454618,-0.41321037702685237,0.1742256995765188,0.16553747456792978,-0.3382721009363994],[0.013608444680048326,0.08421277378937732,0.030259777572104355,-0.27996954633161303,-0.31788819409623165,0.22725460855672708,-0.016529418108383903,-0.4635895800330563,-0.6575331360655028,-0.4756763658134866,-0.13990757493929323,-0.14673248234483008,-0.4210222275196075,-0.21266722505272465,-0.1480155507450904,-0.24246868615760545,-0.06017769564964631,-0.01605321240390806,-0.3335780456686213],[0.29421967207944627,0.0004629020427779722,0.5002991156643635,0.00803877860982367,0.3147745980016547,0.19382275080045208,-0.14962905496681442,0.10281559411879641,-0.44144408861836787,0.8039120233365582,0.20159278220425686,-0.24012100720298188,0.09995164306189266,0.44329859759900564,0.09086473117691989,-0.38295449548935834,-0.5186158722777744,-0.24541645673293383,0.15285760461080686],[-0.009365319284376396,-0.3135988166561369,-0.118392414070289,0.24551763307713578,0.6797172041163998,-0.4347216657859727,0.13062054126563685,-0.14729594448173777,0.04230891432477053,-0.6661590893677711,0.2389888992419224,0.562282955157729,-0.5187166938342017,-0.1300261047440363,-0.4713454298373374,-0.42133860842432425,0.13831824884600213,0.4359005740918342,0.39363977438071823],[0.5490965309965307,-0.34242515129917445,0.3633081185819963,0.1005007690411413,0.06792004713104398,0.06752978873805413,0.4918954127348303,0.49252057283983064,0.0078004676842404605,0.38239891780734514,0.24456619792066991,-0.42283339069727865,0.1868366269555025,0.12216145125716048,0.34206474164017153,0.22162721777628255,0.20520515110972903,-0.07934793454376476,0.4399275198544726],[-0.7560845199034888,0.5390140530664306,0.23584553096783362,-0.2617646931922228,0.588842777299048,-0.41446453713812814,-0.05580069986386896,-0.09268483083960329,-0.5013605976543463,-0.02695330124572971,-0.5598974703200128,0.25661295518004984,-0.12780237663679148,0.04350123273200283,-0.27359467061100173,-0.3905511883994246,0.11592170284607736,0.5231544835797637,-0.257644712091839],[0.24714589235821738,0.007334597032254262,0.2134286776154699,-0.2396237884990173,-0.35989325360569174,0.06873692557729798,-0.18740205953489866,0.005519139154560697,-0.33634217614639667,0.5622275378459021,-0.3105561096483298,0.028768785602996862,-0.10325593990278151,-0.27263135850962567,0.6017682329266238,-0.46144757469952014,0.42333379125238424,0.6777520027865687,0.5532451821159716],[0.43650558626144315,0.4734077178340221,-0.5392755774876292,-0.07450427866803772,-0.26697243506823715,0.23300120287039033,-0.11497154868592002,0.3663292842995314,-0.4449847354241156,0.037584987611427284,-0.2407141915356537,0.48692571294878184,0.09279671949274013,-0.4615382379795245,-0.7244514622555722,0.30425213050737276,-0.15887511306807162,0.2399797434830886,0.021847605443796617],[-0.2997507770076789,0.13966365079201964,0.10767248010411945,0.13738205893235597,0.3502696560988123,0.24592608662308424,-0.18392709025771878,0.0752940923127459,-0.23224707694179297,0.7416875243415899,-0.8881472953277656,-0.3275367879242991,-0.43530856578266974,0.4610891553948511,0.28250409878619787,-0.06267366209992012,0.40465093360709514,-0.22735335893740233,0.31359264652827173],[0.3326789748085542,0.43326625511608013,0.4838462866983462,0.2603429255403918,0.20521279007639326,-0.382352397037959,0.3717856131343512,0.2131273052390002,0.4809663569748525,-0.49765481038751613,0.14499632262819245,0.3055948828916767,-0.26077407568259625,-0.07409230314863569,-0.7878270597754786,-0.43549464635839463,-0.25280423881620706,0.3784532890405587,0.21675322986828535],[0.5081721753647773,0.47553898505512743,0.180074953085201,0.2509175565526804,-0.46478086963974513,0.06418297607513762,0.44818184448885245,0.47879063180896564,0.1288211474724862,0.5063849225412186,-0.6312737043775298,-0.3352650466056104,0.2713991187812217,-0.17478706480647108,-0.22530380366406016,-0.4771654385779951,0.1142266538303208,0.48416056317122497,-0.3973497829200145],[-0.07337860963683913,0.38411221861477324,0.35799347441114115,0.26507987054002596,-0.543407980677666,-0.46004303812034997,-0.166627254270474,-0.1901181769662666,-0.40130015843077366,-0.10297939816690316,-0.08963977111256785,-0.22991041448361563,0.5233232212090562,-0.5205926414847958,-0.4395090804204528,-0.3610694982858471,-0.1499747876584353,-0.12778036807778914,0.1935069090482198],[-0.20462521265568626,0.24466593236935424,-0.37534562374070635,-0.34242581893473883,0.5640378595056911,0.04910112953267028,-0.16460779547385299,-0.18870963046834127,-0.10048388247438389,0.4971682471192357,-0.09591716997431779,-0.02051084086975392,-0.3778820306731413,0.22071504375810094,0.4402289805738421,-0.2491969398907721,0.4373652468569924,0.7720315907350623,-0.05359674081927457],[0.3732350018452902,0.3676369837794165,0.27872200402137015,-0.004042996902004076,0.3299037116971533,0.22664609245059564,0.026420227474954074,0.4603729224642008,0.3310042048061929,-0.4796409325395743,-0.40834125076768457,-0.16599447827460037,0.35605901236448967,-0.13020685360104542,-0.5920111056101123,0.1636315807346643,-0.1220843774889585,-0.11538479059875942,-0.14383324258457922],[0.12375951934141446,-0.1858780920265145,-0.3451035187984589,0.4473703682682552,0.21094438225727052,-0.14755755907004964,0.274888868270458,-0.07980402720419465,-0.12425617301158862,0.7324787851657444,-0.30966094112327147,-0.286564318466784,-0.2734483647071263,0.3834203620085152,0.2078642501237522,0.204852312131962,0.40237243024547353,0.5578923316415174,0.24172820760491123],[0.09024210231040146,0.08665538433380428,0.3118398268026634,-0.20950769831359664,0.5041581062938368,-0.4363086883838737,-0.3781491550789857,-0.32149774819895205,0.15603624116337433,-0.26625926833137664,-0.46814280531210195,0.11582337806124697,0.07807875685171967,0.3030784150941866,-0.25102392694702635,0.20338814907597294,-0.29577897445358814,0.22170952207282107,0.354804364033616],[0.017423366037756887,0.3196388146663311,-0.04630016410567787,0.13255709468782176,-0.35500678044293715,-0.41806820314671334,0.2941525466517517,0.19341551415522273,0.04139441417950421,1.0643319515139333,-0.2813056740520632,0.5800664855213967,0.013099208707890886,0.8161192044240564,0.18640107852424975,-0.11334162935235946,-0.28388643735377117,-0.24432201741928464,-0.3368766443116588],[0.5357215604062328,0.4683937667236852,0.09342742008098245,0.2804320408806504,-0.0006978358024266496,0.06954761441177708,0.3995724594203024,-0.3056251201457716,-1.0158170691983928,-0.41335088454899793,-0.08055605784115116,0.1964628024922204,0.11502845465830305,0.1475247085645254,0.20670418145151773,-0.36090499086913863,0.2787394364371544,-0.35909247457252175,0.05784365858840667],[0.3688891926174341,-0.5197064426931354,0.1864131369082318,-0.3863219658182206,-0.12823577388761165,-0.13507696755295728,-0.10629370921338188,0.4780752869133139,-0.5376689679869622,0.28018800808383815,0.23874000229083353,-0.2932572490324399,-0.1309938023131177,-0.19773555152774783,-0.1684770724267367,0.2926029410421037,-0.03591117857566202,0.24909272087682008,-0.14627370508069368],[0.31345571574973546,0.1391371826361707,-0.12161770411322681,-0.44788974917962915,0.1412759695359163,0.4520226291496463,0.055865724405917624,0.003974867772421615,0.10096018080464372,-0.14530019463485774,-0.17239640985288768,-0.020380179659965407,-0.46292506743963746,-0.6952333127653585,-0.3661734076052606,-0.23245257965310337,0.3581032282579788,0.30125798891617234,-0.17292256362071476],[-0.09083545535968789,-0.19380835288435427,0.32507054297418714,-0.19824061210679747,0.1069994601765011,-0.46300463348990517,-0.3888522020444002,-0.002265333575643647,0.3476428708884624,0.8116525473442859,-0.32345952367877473,0.3476543261523489,0.03725883464001031,0.6845551624853989,-0.7337766545958337,-0.542143963875638,0.03242815044162463,0.1768172333940688,0.018533519112372766]],"b":[-0.26563975823554825,-0.24419824932884474,-0.39441321951444724,0.20631677109457494,-0.28404384174936387,0.09004116549469904,0.14621367848485253,-0.3403290279928522,0.1451122907735997,-0.4291040059916918,0.13460469777920317,-0.4327935467079376,0.037359602782468276,-0.40027241821298626,0.45437818498041577,0.498831156582937,-0.22019325093097827,0.14256385831086008,0.28674428200579966],"biasHidden":[-0.7983399217876581,0.6561811588879922],"v":[[-0.6535481019935285,0.5626495599920859],[0.11046324613370119,-0.3283143770921622],[-0.5822855409019502,0.37371386025008163],[0.2909802057736278,-0.12121332305909466],[-0.42151599447079147,0.7397979697353821],[-0.7116570519327414,0.5256034647775143],[-0.19711420086634124,-0.31570107325943164],[-0.09134360886196033,0.41450823681241084],[1.1017104222594323,-1.2792129171970206],[1.5639959257521039,-1.6161588814018455],[0.8965289944578976,-0.918954523396618],[0.6076077982043046,-0.44364508608100606],[0.5906794141320876,-0.0018436235223237788],[0.8471919000457608,-1.2109278442432923],[-0.9792620371633715,1.0539782209440034],[0.1818493848209137,-0.4765152967484464],[0.12996235900192207,0.35030286252123527],[-0.9115831834946897,0.6996157529176501],[-0.22060799727285868,0.4670363671538868]]}